60 50
_ -0.6364188 -0.8831062 0.2952261 0.98182493 0.5071541 0.09737192 0.9268952 0.5598103 -0.3859757 -0.5709489 0.041279793 -0.12980232 -0.55971557 -0.40520987 -0.17646536 0.9485533 0.45241407 0.75427413 -0.89876753 -0.16390824 -0.20563415 0.68639624 0.47085547 -0.08348367 0.1795064 0.4447026 -0.6585111 0.09386671 -0.3557332 -0.30001137 0.7025444 0.25621402 -1.3647381 -0.17592639 -0.33759087 -0.107926175 0.45987722 0.3645469 1.3573827 -0.5235354 0.7464577 -0.52218676 -0.13401233 -1.0478042 1.8794215 0.1969019 0.3701504 -0.34596175 1.0692855 0.38664407
e -0.2810773 -0.07129796 0.43450877 0.29939213 1.1166062 0.09725274 1.1887559 0.74621385 0.26366442 0.035372887 -0.7500741 -0.36973774 -0.47267258 -0.43024322 0.0038143191 0.25234962 0.81657904 0.7652686 -0.48770216 0.15449473 -0.648715 0.26916534 0.20315294 -0.12467965 0.16848058 0.1078572 0.13677967 0.20933029 0.061639886 -0.5973582 -0.21106768 0.2991649 -1.1328319 -0.48308545 -0.80762583 -0.107754655 0.58754057 -0.2320965 0.6608283 0.3088517 0.8060886 -0.22390445 0.6236541 -0.44653723 1.2481977 -0.033412945 -0.05347952 -0.6798717 0.21285136 0.7947765
t -0.5164752 0.20428804 0.08879484 0.35328612 0.5505763 -0.20390557 0.949616 0.37631702 0.41946524 -0.19259925 -0.70211345 -0.57364213 -0.7978459 -0.37551746 -0.011441427 0.5505539 0.74531 0.7749728 -0.081858814 -0.12831776 0.33161002 0.31751397 0.5496857 -0.22466768 0.4082241 0.4257495 -0.55607396 -0.06590198 -0.058355656 0.22897197 0.42730635 0.06889575 -0.98289436 -0.86973494 -0.6055815 -0.17458592 0.40637043 -0.00076048746 0.7290619 0.014632234 0.72111565 -0.6148333 0.027992848 -0.85694325 0.12031122 0.15110846 0.24885271 0.2259384 0.9736533 0.23673066
a -0.56031686 -0.097207464 0.1728371 -0.29012954 1.2284542 -0.18022193 0.9769675 0.4422044 0.0429018 0.13537598 -0.28949833 -0.8676543 -0.54479975 -0.32695183 -0.18413626 0.7713146 0.8751424 -0.10266964 -0.45202687 0.20466575 -0.15227729 0.4674076 0.25204822 0.06925462 0.19478549 0.21930553 0.37232962 0.3172425 0.13728485 -0.38968858 -0.014739375 0.020173825 -1.2710645 -0.13142553 0.04190936 -0.02466955 0.84109974 -0.20459008 0.7959646 -0.16689731 0.6584967 -0.23870099 0.50765914 -0.085424 1.3143581 0.116748 0.5212149 -1.1684271 0.1660337 0.5108233
o -1.1176393 -0.39712268 0.07125116 0.39861107 0.7237693 0.11214602 0.94243467 0.9278148 -0.1342841 -0.09595344 -0.42318946 -0.863502 -0.5277564 0.051230635 -0.42010993 1.0148607 0.62311757 0.4944091 -0.27392188 -0.08812465 -0.2585883 0.24317208 0.38121536 0.030175488 0.15483154 0.11295947 0.0945106 0.87120026 -0.461483 -0.27798033 -0.32398382 -0.07493636 -1.1566793 -0.68359035 -0.19158252 -0.43741694 0.56673694 -0.5363146 0.65037787 0.10201905 0.4732118 -0.037138853 -0.16875099 -0.29671398 0.8721763 0.16945876 0.42714113 -0.63048947 -0.26204634 0.65277004
n 0.49733904 -0.15076141 0.33646667 0.09098103 0.92028797 0.08611319 0.58862543 0.068700634 0.23430063 -0.768392 0.21743722 -0.5231088 -0.5752317 0.7600726 -0.6019534 0.7857569 0.23415336 0.942787 -0.36545992 0.2505594 0.2611884 0.5712693 0.04968881 -0.5484525 0.15210058 0.49556914 -0.26294827 -0.55517894 0.17730692 -0.24115282 0.19019361 0.12089579 -1.1025591 -0.32268777 -1.0380328 -0.37495556 0.52526045 0.020900007 0.6090138 -0.41015258 0.7608641 -0.2080513 0.7917797 -0.6889437 0.6713578 0.70397854 0.46066046 -0.48528564 0.98093176 0.5743014
i -0.100219555 0.04539569 -0.37678882 0.07178921 0.86906034 -0.0891314 1.0895625 0.2636942 0.16469951 0.41904184 -0.4391982 -0.07409011 0.01822257 -0.1677273 -0.24857737 0.8319991 0.66023296 0.44317415 -0.20374735 0.21429199 -0.04616828 0.3116587 0.40515736 0.053264126 0.063184574 0.091160305 1.0589298 0.02823074 -0.097753055 -0.35972854 0.18634298 0.3143781 -1.1900768 -0.7811651 -0.6900021 0.059403 0.50043947 -0.9277233 0.31130236 -0.37431082 0.48283443 0.14341266 0.42874599 -0.43452308 1.2285905 0.26395738 0.034469496 -0.37993565 0.7144245 0.47461218
s -0.18861066 -0.16947362 0.25162494 0.0072198245 0.6040952 -0.11872108 0.319442 0.29776385 0.28677708 -0.33829412 -0.21860723 -0.82270235 -0.6143567 -0.015963253 -0.36243474 0.26770633 0.57383186 0.35289714 -0.38910088 -0.33285886 0.15546422 0.633751 0.10886299 -0.27654693 0.4284264 0.10372676 -0.38239914 0.07379019 0.018060792 -0.14021097 0.030940639 -0.2395433 -0.9157467 -0.41080058 -0.463298 -0.3748713 0.4099473 0.2305132 0.5671103 0.097971044 0.29314595 -0.45230258 0.1353532 -0.33342418 0.8316782 0.39341724 -0.13968311 0.08129879 0.7021035 0.32650572
h -0.40225366 -0.09700806 -0.22632453 0.36094883 0.43023914 0.08080333 -0.3516465 0.67179334 0.6371187 -0.17890406 0.29147953 -0.61907816 -0.34543937 0.56365126 -0.4895853 0.68222344 0.7194654 0.49371222 0.18230855 -0.011497138 0.56448567 0.34265077 -0.03887979 0.042093165 -0.12816049 0.42667803 0.22742613 0.08070457 0.049520377 -0.5769735 -0.24224915 -0.26791072 -1.2084134 -0.1297637 -0.7631124 -0.8231369 0.09158005 0.11672976 1.0109557 0.18156342 0.4860697 -0.07405695 0.82920265 -0.34544533 1.5588653 0.6932504 0.6346197 -0.09807787 0.6516611 0.23110001
r -0.15636255 -0.3833417 0.32794634 0.0035849859 0.5505625 0.20606442 0.44386664 0.06238987 0.14371657 0.19412977 -0.019882767 -0.5245324 -0.65227455 0.33267596 -0.5144801 0.14245424 0.92832965 0.9110588 -0.53402156 0.052492533 0.36114883 0.3945818 0.7221599 0.56423634 0.5070502 0.8189605 0.06912226 -0.07679708 -0.44969812 -0.28083992 0.19300158 -0.1901934 -0.40845162 -0.58748245 -0.4937113 -0.65522826 0.22691634 -0.20758677 0.44953117 -0.16470885 0.4157249 -0.42472336 0.057664428 -0.56221586 0.96905786 0.35064065 0.3619431 0.088153385 1.4446616 0.28398064
d -0.32469386 0.65716976 0.25199544 -0.29599738 0.41960472 -0.5810315 0.6356565 0.58110225 0.2402163 -0.34333682 -0.37477595 -0.8338563 -0.55121905 -0.491382 -0.085468 0.4611639 1.0500493 0.44216147 -0.4307168 0.035667047 -0.14282137 0.21207698 0.6125621 0.32010287 -0.049962047 0.5968135 -0.010805153 -0.06835734 -0.13889366 -0.28006983 0.26867783 -0.15214942 -0.87691975 -0.7531814 -0.29304314 -0.020287877 0.041795265 0.09163095 1.0898291 0.38337633 0.6892368 -0.19114202 -0.1901876 -0.49895 0.844647 0.108565755 0.62223583 0.09248567 0.8495263 0.17693716
l 0.14335816 -0.1467389 0.17339614 -0.24960245 0.7844167 -0.36949247 0.39727154 0.5216206 -0.39668104 -0.07665806 0.08046662 -0.94680756 -0.70912355 0.1204191 -0.4767645 0.6219302 0.7271081 1.0777338 -0.6521372 -0.00011286699 0.097290255 0.11329561 -0.20567937 -0.07603871 -0.018213201 0.20021264 0.07724664 -0.113995604 -0.27395067 -0.51906085 0.1425184 -0.033265702 -0.9019024 0.12132823 -0.25425488 -0.11240866 0.18188174 0.22612989 0.6252867 0.084058374 0.5215421 -0.54543537 -0.34344912 -0.15995155 1.0376389 0.5085944 0.71371096 -0.14670701 1.5467243 0.3369964
u 0.39369714 -0.2751132 0.14988047 -0.36464864 0.61532533 -0.072853535 0.80672735 0.49742478 0.32256502 0.4361097 -0.8821453 -0.6770951 -0.09931046 0.22464682 -0.1090869 1.2304034 1.0625553 0.493527 0.30263054 -0.06296657 -0.019099135 0.049938735 0.5778814 -0.13839489 0.68111795 -0.13584842 0.079653285 -0.7277061 -0.0073289224 -0.4951083 0.0423352 1.2525029 -0.98047066 -0.103476726 -0.58729887 -0.12899429 0.121046536 -0.39694512 0.43993568 -0.56491494 0.45612058 -0.89014167 0.35752684 -0.59850824 0.69029284 0.41872305 -0.9183384 -1.0163902 0.16379416 0.31887934
m -0.22143465 0.110757746 0.50422573 -0.3502884 0.37432325 0.18313962 0.022203207 0.46775064 -0.22112775 -0.10566013 -0.35297838 -0.5679834 -0.8424569 -0.24246307 -0.29794258 0.68842703 0.447988 0.9229738 -0.22295529 0.11967371 -0.030404814 0.09207293 1.108084 0.2631604 -0.24700508 0.33897272 -0.11262508 -0.33798647 0.023503121 -0.18559386 0.0520387 0.12201704 -0.8841466 -0.16825525 0.014743389 -0.72626334 -0.33123496 0.010953448 1.0349869 -0.0767373 0.661593 -0.49413285 0.019898452 0.21683592 0.19540705 -0.4776259 0.5458411 0.044193894 0.81102383 -0.012189445
c -0.54138964 0.039839774 0.4306356 0.7220527 0.42946675 -0.02365151 0.8110188 0.33373976 -0.016801775 -0.3244366 -0.49528423 -0.57099944 -0.76669806 -0.27112988 -0.16819422 0.5985652 0.2750388 0.36953264 -0.49226263 -0.1692338 -0.18044446 0.62155634 0.5370909 0.12911995 0.4620717 -0.124314874 -0.3405632 -0.037861314 -0.15447512 -0.33628932 0.21717025 -0.27965355 -0.8936448 -0.9301052 -0.62783915 -0.28904256 -0.06563331 0.27021727 1.2312173 -0.3466255 0.4467994 -0.2912594 0.049261678 -0.6085002 -0.041975964 0.15452395 -0.14336064 0.26264444 1.1914049 0.45774737
f -0.7642008 0.27790332 0.26671928 0.27585122 0.55645907 0.43201447 0.48955423 0.2892693 0.8449304 -0.15051082 -0.30502298 -0.15046431 -0.83531207 -0.17737947 -0.28964156 0.23157915 0.31904772 0.8306373 -0.07466559 -0.36776656 0.5795037 0.6900337 0.77428323 -0.27833584 0.29293653 0.7434265 -0.106013626 -0.51605207 0.41223887 0.1109548 -0.030041765 0.09705814 -1.8910986 -0.36806014 -0.31677255 -0.7509055 -0.46282342 -0.09188269 1.5935503 0.09184021 0.2644891 -0.69485414 0.60965526 -0.37723768 -0.5040968 -0.18668585 0.32953623 -0.24169822 0.85499483 0.17861198
w -0.5008828 0.5923855 0.2896269 0.39903888 0.79208505 -0.21265773 1.2601395 0.26470348 0.08487807 -0.11907145 -0.33178806 -0.55724394 -1.0060734 -0.41682255 0.023071233 0.5428898 0.35313696 0.013559156 0.019409256 0.3219951 0.22487284 0.14220206 0.34697458 0.19555685 -0.16858546 0.67889494 -0.34135193 -0.40639785 0.22238036 -0.36262685 0.13440844 -0.060582113 -0.6000953 0.344816 -0.16575511 0.004251876 0.24292131 0.40335414 1.3619435 -0.33801448 0.3329707 -0.40612006 0.9442864 -0.48671463 -0.6658097 -0.47342318 0.8294817 -0.020856947 0.8876021 -0.14660269
y -0.1902111 0.13885951 0.13631436 -0.0041800677 0.9068729 0.4268245 0.6066933 0.68636644 0.9206553 -0.42936406 0.05800512 -0.46272412 0.4519272 -0.47724286 0.043448616 0.47603008 0.28182718 0.2570518 -0.6933021 -0.0896814 -0.43360263 0.26177514 0.20366135 -0.29821956 0.049592253 0.043529384 -0.33997312 -0.51643336 -0.6860374 -0.48913735 -0.6653202 -0.021870175 -0.6305529 -0.7858715 0.002364525 0.059271514 0.5489907 -0.17997532 0.70740044 0.5267948 -0.4850745 -0.20414144 -0.06597145 -0.24482234 0.79338133 0.9373955 -0.5640851 -0.05223322 0.54169226 0.6298348
g -1.2380983 0.71669185 -0.2564598 -0.015012132 0.48669413 -0.5502485 0.5817601 0.7530519 -0.008245403 -0.7882835 -0.33383057 -0.20689213 -1.2410554 -0.23517461 -0.61540496 0.4555027 0.6076869 0.26807594 -0.8750565 -0.25946122 -0.4030995 0.70401865 0.9241692 0.64192533 0.12216673 -0.20510298 -0.15162638 -0.007197856 -0.28347668 -0.4595872 0.51902896 0.24550483 -0.98864865 -0.038271226 -0.3473233 0.740615 0.53258985 0.03767914 1.2643548 -0.0040203976 0.6897817 -0.068877645 0.5611649 -0.52882606 -0.007061382 -0.23422776 0.21800558 0.4600325 0.45023882 0.34637898
p 0.14542446 -0.25988597 0.7248927 -0.18177764 0.34337702 -0.053296026 0.79578424 0.2508799 -0.29313463 -0.48979253 -0.3745016 -0.5548667 -0.21424359 -0.42672706 -0.19179842 0.27403337 0.14958452 0.45021278 -0.35220465 -0.73564756 -0.26120073 0.48143506 0.9070365 -0.25129634 -0.085818 0.29359582 -0.016713008 -0.17215028 0.20122689 0.21584088 0.18257234 -0.5608316 -1.1828415 -0.40954116 -0.48433042 -1.0281212 -0.9003252 0.04893261 1.0245398 0.10151595 0.3640556 0.040075842 0.55207413 -0.15240596 0.116334885 -0.39986277 -0.0046209306 0.11677616 0.6936115 0.27435097
<s> -0.8771902 1.0979832 -0.24627405 0.85001624 -0.5674212 -0.04148662 -0.51727223 0.36818436 -0.6801719 0.39402443 0.12724322 0.5437762 0.19702218 1.0134927 1.484605 -0.44445974 -0.17935364 0.56846744 -0.11269187 -0.7697677 -0.11225136 -0.81708694 0.48967364 -0.64803797 0.7601942 -0.47966728 -0.008040914 0.7873564 0.062241305 -0.07996556 0.12582327 -0.8731989 -0.11543901 0.019304885 -0.19332887 -0.023300158 0.54338616 0.5381372 0.6057437 -0.5831054 -1.1190445 -0.18291424 0.026022073 0.2222507 0.08400562 -0.20663267 0.50585455 -0.1624557 0.9144665 -0.09608906
</s> -0.98044485 0.88023597 -1.1088539 1.2736888 -1.0975376 1.5271105 -0.03851379 -1.1058171 -2.1345997 -0.04381019 2.3322058 2.607517 -1.7886449 1.0675262 0.43003067 -0.89170533 -2.634619 0.6620367 2.079258 0.14855501 -0.46522772 -1.9514873 -1.148563 1.0539119 -0.16789187 -0.20077948 -0.15996246 1.5167071 1.269555 -0.15104246 1.5701686 -1.0063028 0.27618748 -1.3129241 1.7200499 -0.23821796 -1.760145 0.08022112 -0.0068102665 -0.60072374 -1.2839411 0.4642193 -0.80394757 1.6745577 -0.96922785 0.15710448 -1.646881 -1.1928828 -1.4503838 -1.9518883
, -0.69602543 1.0523922 -0.16492495 0.3482839 1.0519779 -0.21382649 1.4329548 0.8495373 -0.42994756 -0.50633013 -0.23035173 -0.33317524 -0.8510501 0.24851939 0.16749956 0.72818166 0.4037699 1.8060101 -0.73223907 -0.9130781 -0.17730175 -0.041990783 0.5139586 -0.24289338 0.3041475 0.5583425 -0.0884035 0.39383203 0.043212242 -0.35498494 0.3328266 -0.25336304 -1.5464088 -0.9817342 -0.8734878 -0.50597286 0.69433415 0.38082922 1.7368426 -0.2643659 0.4266588 -0.5329109 0.39212212 -0.06789729 1.6226112 0.40200123 0.8255476 -1.5849141 1.7420201 0.32149142
b 0.12144273 0.29296005 1.2046683 0.74564403 0.41701257 0.06142533 0.31854987 0.22909567 0.48451298 0.11079083 0.34967342 -1.1501395 -0.12791991 0.22828016 -0.26372713 1.016633 0.21476927 0.23980477 -0.4666164 -0.088122964 -0.26804408 0.8400074 0.59092003 0.3186505 -0.315705 0.9991503 0.09681641 -0.292921 0.2808337 -0.7956273 -0.18309428 -0.14436913 -1.0985264 -0.28560096 -0.070161246 -0.03281957 0.086152 0.19383623 1.0400804 -0.1756337 0.779282 -0.25483933 -0.32261863 -0.019864216 0.14486471 0.08711852 0.42287534 0.01319325 0.5150346 -0.43597004
v -0.0966325 0.44517803 0.17409115 -1.0869697 0.121520154 -0.46156076 0.011898564 -0.10134122 0.9377529 -0.71191865 -0.61740124 -0.61557126 -0.51667345 -0.09544104 -0.19242235 0.5961499 0.5252396 0.37700072 -0.04302261 0.1594777 0.033285245 -0.07899425 0.29059523 0.562145 -0.1255195 0.5690357 -0.6325392 -0.30410582 0.2237317 0.4197035 0.4927889 -0.036658455 -1.581796 -0.6148997 0.4574773 -0.5605192 -0.18650466 1.1192532 1.355575 -0.31562507 0.45663732 -0.7591789 0.26675528 -0.6880928 0.4804554 -0.37026918 0.66008276 -0.15462288 0.63176966 -0.40393075
. -0.95978284 -0.47755775 -0.4980838 0.051762167 0.5031673 0.7376631 -0.5623653 -0.63389593 0.048685554 0.45970583 -1.8888777 -0.27297497 -0.046616595 -0.08976406 -0.4958003 -0.016039945 -1.4044919 0.52693504 -0.66430473 0.42343318 -0.28611034 0.8771162 -0.87328875 -0.31639612 0.8942227 -0.34354156 -0.045844804 0.21748002 -0.7433887 0.89690906 0.1867774 -0.0015959411 -0.48447922 -0.34416446 -0.88528985 -0.51256263 -0.57001716 0.3824548 0.785119 0.7820082 0.48937917 0.15646432 -0.39552957 0.22344682 -0.36000502 0.3105828 0.55700135 -0.6323722 0.27640167 -0.06220316
k -0.36925048 0.29178742 -0.9417974 -0.15559264 0.4998024 -0.47999036 -0.27490288 0.767855 -0.023092391 0.30649814 -0.16142936 -0.7953968 -0.7504191 -0.6560007 0.023657449 0.54563355 1.0207554 -0.20786585 0.35582495 0.02254815 1.3559502 0.3521664 -0.02557086 -0.5574465 -0.064389184 0.3963599 -0.24934329 -0.49634144 0.073460646 -0.32537898 0.13652405 0.27145293 -0.57530695 0.55027276 0.05646781 0.1430766 0.13394195 -0.3571364 0.664608 0.32287624 -0.16963667 -0.7573323 0.29415673 -0.111983575 0.79041296 1.0684654 0.3118994 -0.2530859 1.1391507 -0.7937916
; -1.2158493 1.1503894 0.13797718 0.95544827 1.2119455 0.19750808 1.4421271 1.2386315 0.061081573 -0.20000315 -0.33886066 -0.768616 -1.2993828 0.5758408 0.15520458 1.4412363 0.38374114 2.1472952 -0.09425117 -1.0050426 -0.4207334 -0.032809157 0.8616616 0.25625074 0.5053407 0.75942415 -0.27062136 0.6293466 0.22210978 -0.5569036 0.43835735 -0.15916032 -1.729983 -1.5059946 -1.2185999 -0.7565329 1.1541172 0.5731263 1.9469177 -0.31230134 1.1697997 -0.79425335 0.14452037 0.20482296 2.1293252 0.39871258 0.41146046 -1.6717477 1.4038137 0.14050378
" 1.5487939 1.0745678 -0.054973956 -1.7258117 -1.157384 -1.3600442 -0.28406543 -0.1643283 -1.4524992 -1.15697 2.2526479 0.6766893 2.7835238 -1.2249146 1.3729374 -0.3787672 -0.12508552 0.043343797 -0.27305433 -1.7844267 0.54853445 -1.2122838 0.42491078 0.1473994 -1.1762053 0.3441942 0.25645193 -0.42541143 0.16575034 0.47080135 -0.72864187 0.25197342 4.5621386 1.8288844 1.4823574 0.5048987 0.050724175 1.0163537 -2.2933416 0.26775864 -1.7780432 0.62077856 -0.45736602 1.9674284 -1.0906137 -0.8728149 -0.49701098 -0.042339336 -1.6046693 -1.1664896
x 0.66599816 -0.015181905 0.49824557 -1.2105628 -0.013711667 -0.6669453 0.0050660586 -0.58973503 0.45207638 -0.7021673 -0.92545617 -0.7264272 -0.15951449 -0.4334029 -0.26686212 0.2811256 0.35092852 0.41312987 -0.12673834 -0.2953045 -0.124244384 0.4326098 0.15787295 0.2204811 0.41995773 -1.007665 0.2106909 0.53887606 0.8231969 0.47267583 -0.032948434 -0.81350034 -0.8647671 -2.059702 -0.40562847 -1.4850795 0.22210756 0.9574403 0.13281943 -0.7704427 0.5701209 -0.14094481 0.4574062 0.33349943 1.251245 -0.48248506 -1.2553381 0.2088978 0.8972131 0.5014831
' -0.13405633 1.2055252 0.044701084 1.378571 -1.3351424 -1.3691838 0.04007488 -0.4250136 -0.88510966 0.83586454 -0.63320774 -1.1219832 0.74910766 -1.3488344 0.67244565 0.65559953 -0.3761857 -0.62563545 0.4162221 0.8362938 0.5081856 1.1254904 1.1324248 -1.5000491 -1.6326373 0.03732403 -1.8682289 0.28972098 0.52629733 -0.86335254 0.005939481 -1.9156933 1.251783 1.9533613 0.190766 0.67022026 0.66074806 -1.1267765 -1.0806606 1.0910988 0.3972766 -0.28010064 0.75953394 0.7384239 1.1515203 1.1489227 -1.6325835 -1.0312392 0.22235742 -2.2258751
q -0.4053949 -0.35762194 1.952372 -0.122077376 -0.7672894 -1.1572219 0.15051922 0.44389024 0.3946098 -2.2053175 1.5283855 -1.7899073 -0.023269234 0.57483006 -0.87124914 1.2847373 -0.9937454 0.19989225 0.10037878 -0.57709265 -1.0007178 1.2499639 0.622569 0.59735537 -0.34576797 1.0360377 0.9166824 0.22634491 0.84775615 -0.21103218 0.102820374 -1.0200531 -0.6738959 -0.030021073 -0.37906957 0.6694731 0.33567113 0.18789719 0.84683216 0.4149577 0.39899823 1.0523286 -1.3736331 0.06354797 -0.31861067 -0.72309566 -0.54052836 1.654184 0.60604805 0.109200336
j -0.15851314 -0.71489197 1.4332091 -0.52134913 -0.9797457 -0.36898312 -0.5830279 0.5156437 0.44245148 -0.38275862 0.56992626 -1.206521 -0.2007308 0.16651587 -0.02959194 0.400668 0.098159164 0.5184705 1.0395021 0.3299932 0.018196566 0.23044528 0.4367024 -0.09768474 0.47317156 0.91581166 0.5062882 0.03042397 0.73763794 -0.17619939 -0.40175655 0.18261929 0.20231459 0.42590067 0.25310567 0.17205533 0.3021901 -0.6349926 -0.08782536 0.63124293 -0.35583517 -0.38153234 -1.6569681 0.25050452 0.4666217 -0.37940243 -1.3752774 0.42239398 0.26781914 -0.35569096
z 0.01108751 0.01879527 -0.39796972 -0.7472815 1.1999309 0.0030493517 -1.2782934 0.19583935 -0.3298221 -0.757451 1.5064272 0.12623651 0.44468892 -0.014053159 0.8910109 0.36087313 1.2108665 -0.54000497 -0.5260966 -0.12375862 0.17335108 -0.22585393 1.6212134 0.17747506 -0.65475947 0.51122856 -0.24527812 -1.5518873 0.42771637 0.47275367 2.114842 -0.08154409 0.20789273 0.687085 0.21814795 2.2860498 0.13160427 0.30225286 -1.4145517 0.4136969 1.5619829 -0.27385435 0.04351648 -0.3515126 0.33198288 1.7941941 1.1465442 -0.49982172 -0.9089554 0.067782775
? -0.31014165 -0.5776939 -0.51963913 -1.0354502 0.49775812 -0.91228205 -1.0960385 0.07064208 0.48127687 0.24892236 -1.7366357 -1.3251681 2.1837306 -0.6003528 -0.029801201 0.5262639 0.12663375 0.4855225 -1.4422847 -0.7445884 0.7130172 1.3903679 -0.35648078 -0.4886995 0.92794555 0.5205694 0.64479804 -0.51269895 -1.3468884 1.186929 -0.41950834 1.1274076 1.9852393 1.8421243 -1.7897464 0.5116287 0.96097684 0.9202773 -0.5854561 1.3216771 0.61795306 0.25152048 -0.55092615 0.19435003 0.17323256 -0.029765552 1.8296428 -0.13038409 0.23635359 0.09256623
: 0.30600166 0.53614837 -0.16582839 -0.6559787 0.14624561 -0.56738335 0.044938937 0.44414884 -0.60924155 -0.19533858 0.21378285 -0.0355339 1.6340684 -0.5232768 0.9851172 0.3121924 0.16153832 0.92848843 -0.62078553 -1.2616701 0.056168072 -0.3019628 0.5020589 -0.48923057 0.02889962 0.26423877 0.4677862 -0.0436006 -0.16755155 0.4352284 -0.17301491 0.38325807 1.4711826 0.6088914 -0.31178558 0.25896522 0.70648974 0.41313547 -0.6425152 0.44591692 -0.19365281 0.13566491 -0.43273896 0.9538403 0.8778836 -0.015349677 0.34171593 -1.0081011 -0.13521905 -0.13899888
é 0.024773393 -0.26673838 -0.049104046 -0.16819227 -0.35504654 -0.22343726 -0.5224004 -0.22988446 -0.29685977 0.050210655 -0.25186944 -0.04309914 0.6689753 0.060994294 0.32417625 -0.03902561 -0.19839406 -0.033389598 -0.17962228 -0.08197385 -0.13291748 0.05444635 -0.016768405 -0.19957817 0.29614872 -0.30459335 -0.02754342 0.15007865 -0.14272892 0.26316044 0.20137495 -0.056482904 0.54818004 0.46484166 -0.11184865 0.23197502 0.084130645 0.2814562 -0.45696545 0.060310334 -0.1661445 0.070779786 -0.2628684 0.0896865 0.092076585 -0.05121731 -0.1711422 0.006657864 -0.17649661 -0.1270193
æ -0.09138943 -0.21900141 0.07033839 0.056526605 -0.2649177 -0.05679671 -0.1876011 -0.10559593 -0.23035893 -0.003131427 -0.06002741 0.13403562 0.27967918 0.16249345 0.14786081 -0.12288828 -0.08781981 0.07032064 -0.21282402 0.05749561 -0.2250242 -0.026871473 0.05935409 -0.1411431 0.19972187 -0.23948048 0.03940218 0.22759943 -0.16250788 0.051768463 0.11698032 -0.14168905 0.044476207 0.2264608 0.004275129 0.18993767 0.01873033 -0.017024046 -0.19449449 -0.01536255 -0.18736298 0.12563883 -0.15164442 -0.16531093 -0.0647406 -0.15225388 -0.054611336 0.3158325 -0.08122319 0.10042649
ê 0.0042707836 -0.06415346 -0.07091863 0.04739825 -0.26639318 -0.0069319713 -0.2799987 -0.19685009 -0.2527537 0.0031043228 0.11239741 0.2268553 0.3249756 0.19086333 0.19253764 -0.2053628 0.0073706354 0.12806645 -0.28443474 0.014402694 0.008480393 -0.042337853 -0.009748798 -0.17746113 0.16949843 -0.13120389 -0.0457764 0.11564651 -0.16937754 0.08592285 0.07316784 -0.12386369 0.21659647 0.1984403 0.010278107 0.07944526 0.0038295826 0.041614484 -0.21780945 -0.06007085 -0.25419623 0.09152888 -0.05436609 -0.10349985 -0.017242258 0.024915788 0.048866488 0.13891046 -0.052107293 0.0038838298
ö -0.06659611 -0.09365832 -0.012508347 0.08352782 -0.12771958 0.0077239275 -0.17928629 -0.04501745 -0.20528284 0.084677905 0.07852847 0.04354551 0.24569798 0.20172822 0.19303527 -0.06623182 -0.0048888247 0.08107318 -0.18216462 0.03276933 -0.019466046 -0.07539004 -0.0106231775 -0.173454 0.13485724 -0.09315486 0.05660816 0.18011563 -0.14593795 -0.021813365 -0.04104723 -0.116240636 0.13358483 0.19311588 0.027487699 0.03402289 0.089153685 0.0012654368 -0.14533475 -0.0659815 -0.23377866 0.06527744 -0.09211251 -0.052218862 -0.030367281 -0.03686657 0.11987487 0.13037056 -0.02507105 0.064780585
è -0.033566996 -0.064416654 0.07202954 -0.061902065 -0.17442626 -0.06901957 -0.22922556 -0.06904747 -0.09270279 -0.11216679 0.030375803 0.04059974 0.22147107 0.122137114 0.15347588 -0.09452621 -0.11187669 0.11846648 -0.14734553 -0.040719513 -0.08411437 -0.0211835 -0.005914745 -0.10599671 0.12756787 -0.05785612 -0.0019238826 0.030077716 -0.06067478 0.117831975 0.07478776 -0.06884531 0.0922146 0.24745132 -0.014348813 0.087347105 0.010673962 0.18714471 -0.024631841 0.02353441 -0.13285291 0.024159132 -0.14335223 -0.033249132 -0.05694733 -0.14698443 0.073571794 0.10835217 0.0031778717 0.03147303
ë -0.03028526 -0.10453211 0.037832916 0.017191906 -0.09176901 -0.0041239117 -0.13335054 -0.06245713 -0.19219089 0.010694695 -0.019296603 0.05023363 0.101420365 0.063101664 0.10394361 -0.07011945 0.062660925 0.06662115 -0.17116185 0.081353925 -0.05249292 -0.05284261 0.027420525 -0.10176654 0.12013326 -0.11616996 -0.029465212 0.11724628 -0.1250442 0.0029795326 0.059140783 -0.10985115 -0.018096935 0.10824587 0.02762564 0.06305868 0.0053027747 0.04195403 -0.067001686 -0.01834136 -0.13752218 0.010534829 -0.040214166 -0.12803923 -0.014953804 -0.060509596 0.094535835 0.21200529 0.0054570227 0.05300995
à 0.018049179 -0.063283585 0.10463632 -0.024043439 -0.24391444 -0.07659673 -0.27711207 -0.15823677 -0.27757168 0.0553742 0.062205162 0.08834508 0.37675723 0.20112318 0.25517765 -0.102338314 -0.0073830513 0.13550828 -0.2272591 0.032527376 -0.09569656 -0.1080798 0.093922056 -0.15522328 0.16737372 -0.10741099 0.07737328 0.16792206 -0.07892219 0.087907135 0.10318768 -0.16362666 0.15605713 0.24095672 0.036326487 0.050011195 0.0662765 0.08775219 -0.19148053 -0.11012743 -0.24714988 0.0778131 -0.104839265 -0.061575923 -0.02466545 -0.19617781 0.13115187 0.20182279 -0.021307597 -0.0076144775
ô -0.051126584 -0.06068759 0.023951538 0.02283538 -0.117511086 -0.029822966 -0.12244388 -0.11104384 -0.09192789 -0.03511643 0.00022244002 0.050052967 0.10723283 0.097013906 0.08919765 -0.0506972 -0.09780172 0.018196335 -0.044174895 0.08894276 -0.075165726 0.0011658029 -0.07171755 -0.068114154 0.099701956 -0.06631645 0.07422206 0.12846607 0.0067666834 0.08535239 0.046842717 -0.11746783 0.0139649 0.08475177 -0.028892798 0.019990873 0.0011493572 0.073207945 -0.014242609 0.0029415672 -0.08270603 0.092758246 -0.04186359 -0.050813086 -0.03595755 -0.12056982 0.042292032 0.16540405 -0.061167646 0.0109972935
ñ -0.060996894 -0.029879069 -0.0024194904 -0.0076068183 -0.11709792 -0.055867657 -0.23008816 -0.04688272 -0.17759228 -0.0021173991 0.076323345 0.06893133 0.25870094 0.1393437 0.18951283 -0.08085439 -0.012618789 0.0753127 -0.16427381 -0.06574145 -0.040915333 -0.03032477 0.094985865 -0.019432219 0.122167565 -0.0015302532 0.06592685 0.08382738 -0.0834524 0.07835667 0.08793514 -0.05408701 0.19386965 0.19001383 -0.004384509 0.18182145 0.0909594 0.04906891 -0.1995649 0.03311187 -0.08903628 0.067930765 -0.15056758 -0.009005872 -0.019091858 -0.052013084 0.1591127 0.07750681 -0.05098704 0.0017060986
ä -0.042954817 -0.09322925 0.052605834 0.08537056 -0.26338428 -0.09680036 -0.23198672 -0.096831 -0.28133878 0.031916816 0.030794807 0.025966544 0.27201045 0.2223835 0.26951876 -0.03885907 0.03618077 0.09458718 -0.19894725 0.03352274 -0.06083904 -0.053612534 0.14173368 -0.23130704 0.15098944 -0.1252362 -0.03414124 0.23100622 -0.090693615 0.059951022 0.07151532 -0.20947509 0.060573727 0.16373992 0.042085968 0.07647946 0.14896667 0.004821558 -0.14768313 -0.11825551 -0.21894181 0.030808605 -0.15368639 -0.124360956 0.097812176 -0.08855825 0.08366828 0.15750082 0.031430937 0.05526636
ï -0.017245527 -0.053384356 0.022651982 0.0054308083 -0.07702232 0.0027373373 -0.09520922 -0.08614395 -0.09831406 0.035578888 -0.0056437515 0.06495086 0.083365016 0.046192564 0.124782145 -0.053307712 -0.039586887 -0.025446113 -0.0213419 0.07862623 -0.035014544 -0.052797634 -0.051454388 -0.08495467 0.036546048 -0.05653337 0.02905531 0.07020944 -0.00012201118 0.028257262 0.07758876 -0.07760932 -0.018212184 0.05652839 0.03774812 0.01657444 -0.0025757405 0.05516818 -0.04460062 -0.01771008 -0.08625286 0.054002013 -0.018397018 -0.053362213 -0.016607422 -0.079162866 0.035208404 0.09015301 0.0005605229 -0.004733572
â 0.013326799 -0.0783287 0.059005167 -0.082220055 -0.120340355 -0.03424717 -0.22625114 -0.039251246 -0.05617721 -0.008538472 0.012917328 0.028374014 0.24038574 0.1486816 0.16578951 -0.034629714 0.041478623 0.003551287 -0.09052168 0.045608 -0.04295917 -0.049615443 0.06802593 -0.103647634 0.11082951 -0.06948561 0.09088703 0.03240827 -0.043796845 0.09492235 0.04293126 -0.0514711 0.069472685 0.18471579 0.001981366 0.075262725 0.055659432 0.09070544 -0.15060838 -0.02385481 -0.10450263 0.0298063 -0.04408018 -0.08171751 -0.010671228 -0.0890317 0.13370731 0.15739687 -0.050358895 0.06658824
ü -0.06887499 -0.030071614 0.053985085 0.03094135 -0.09831775 -0.008800674 -0.059689447 -0.021074776 -0.15794554 -0.00922305 0.0622161 0.06950515 0.08667683 0.09840777 0.13653478 -0.05965077 0.07048091 0.10262803 -0.14511895 0.041752603 -0.079554394 -0.0753202 0.070708744 -0.079467654 0.09254817 -0.10077148 0.008757967 0.112672284 -0.058059555 -0.025135076 0.053944163 -0.096037984 -0.01016177 0.03464471 0.06667599 0.011695227 0.058426347 -0.035309907 -0.046619173 -0.045171868 -0.14623214 0.020601314 -0.0178011 -0.10469451 0.003162894 -0.056078218 0.0381492 0.13353711 -0.035484318 0.048317086
ο -0.012337078 -0.1396749 0.06598814 0.016188283 -0.28554213 -0.03622634 -0.39999393 -0.17172177 -0.27794966 0.13397077 0.0252527 0.1644863 0.3918693 0.30829242 0.3877357 -0.2026395 -0.07259252 0.013367499 -0.20282969 0.18065076 -0.12484223 -0.21925612 -0.018919341 -0.2751558 0.25232086 -0.2691523 0.099829875 0.21965145 -0.12572569 0.12303707 0.111208186 -0.19094127 0.09156281 0.35353774 0.08187557 0.13746797 0.078155875 0.13551682 -0.21172385 -0.13915831 -0.38803056 0.07630881 -0.12275572 -0.17531548 -0.11958975 -0.24990173 0.23977873 0.3779273 -0.0048974287 0.06494102
ἶ 0.008258594 -0.095830776 0.047981918 -0.019762207 -0.17835505 -0.022156298 -0.31221184 -0.118426815 -0.20422092 0.09578269 0.0020688507 0.13195649 0.30348283 0.20926861 0.28844738 -0.112519905 -0.020224446 0.04799734 -0.13815026 0.11348007 -0.09605288 -0.17398417 -0.050798286 -0.22190979 0.18013236 -0.19200575 0.073556066 0.11646354 -0.07594245 0.09798695 0.07112828 -0.1148569 0.048984468 0.24365205 0.056097534 0.105625495 0.055103287 0.11287279 -0.14183486 -0.13015614 -0.3006463 0.053360596 -0.065676056 -0.120055005 -0.11164681 -0.19336732 0.16139597 0.26159045 -0.04062233 0.040773988
δ -0.006846426 -0.11538453 0.02037771 -0.010829799 -0.18966644 -0.043581557 -0.31141803 -0.114435785 -0.20796628 0.08937256 0.014275569 0.11390082 0.2922478 0.22526065 0.30344796 -0.123531915 -0.025534637 -0.013591432 -0.1248882 0.0802119 -0.09765758 -0.19050784 -0.053178225 -0.20540316 0.16501488 -0.20060867 0.06813428 0.12951484 -0.073145136 0.101235576 0.071276926 -0.09314428 0.061012603 0.27129033 0.035829708 0.097143255 0.0634779 0.12819502 -0.14913839 -0.10925749 -0.28784287 0.050732557 -0.06591956 -0.11439221 -0.07934806 -0.1933198 0.16546082 0.2657106 -0.012890138 0.08630782
α -0.039872672 -0.08588784 0.012813461 0.02074278 -0.13663274 -0.022102648 -0.21203536 -0.09201796 -0.20368409 0.08620661 0.0015088958 0.09697667 0.25311947 0.16446935 0.2284248 -0.08115079 -0.00085403083 0.03543418 -0.107665434 0.06222944 -0.03975061 -0.1355922 0.006578318 -0.1674352 0.13378964 -0.1664264 0.06448228 0.12725432 -0.07167925 0.076819465 0.057263106 -0.08680316 0.07102586 0.21960898 0.023080712 0.07095595 0.028029103 0.10538348 -0.10374504 -0.09270984 -0.2185357 0.04310931 -0.06579791 -0.08632614 -0.05044234 -0.14446598 0.14728938 0.19176196 0.0007651673 0.03629463
π -0.04319284 -0.049079124 0.03633276 0.04964316 -0.15889733 -0.03154828 -0.16492416 -0.07873053 -0.18054442 0.011649957 -0.00069887796 0.038254492 0.140171 0.14075033 0.13750146 -0.08234309 0.017868927 0.06596931 -0.15466738 0.05009939 -0.0544775 -0.06456763 0.042425837 -0.12282009 0.12109983 -0.13732235 0.016714904 0.15666853 -0.08400806 0.05057133 0.052825045 -0.12761243 0.017121073 0.11718848 0.009992297 0.017333748 0.054184187 0.061561286 -0.07787567 -0.06741886 -0.13275625 0.021916775 -0.063447215 -0.11222586 -0.009569787 -0.096717305 0.09298961 0.1720598 0.047132432 0.048061263
ν -0.020361157 -0.05729084 0.031096429 0.024602557 -0.12749156 -0.031768203 -0.18326391 -0.097069815 -0.1259658 0.061362907 0.012705268 0.03753644 0.1718391 0.15196383 0.16175625 -0.10050547 0.0071926494 0.014492691 -0.117827475 0.09451319 -0.06523078 -0.054704867 0.01945719 -0.12537163 0.11181818 -0.13941266 0.005937639 0.11350138 -0.07381728 0.03650791 0.059784494 -0.12996794 0.0242045 0.13866758 0.01812009 0.042321578 0.057816345 0.060131412 -0.0961944 -0.07661068 -0.18808828 0.032551438 -0.07073231 -0.09906056 -0.05145717 -0.08554671 0.06440077 0.19033398 0.0004080541 0.040799774
υ -0.033536453 -0.069200985 0.04955895 0.016719274 -0.12360118 -0.031249095 -0.14201957 -0.06400521 -0.14103623 0.04523446 -0.009443782 0.024216065 0.14492127 0.12499944 0.14474842 -0.07975721 -0.010813633 0.061303273 -0.11389507 0.05316112 -0.041796815 -0.052277062 0.04412823 -0.13660948 0.09917507 -0.12865128 -0.013950757 0.11778731 -0.063197285 0.0124736605 0.029301608 -0.13252205 0.030331098 0.100992 0.039581254 0.013455992 0.04851096 0.036143783 -0.066376 -0.05541901 -0.14657997 0.028331354 -0.04559378 -0.10363325 0.0026363644 -0.06026015 0.073999636 0.17573121 0.0073666456 0.021021586
ς -0.010259035 -0.043788936 -0.0034484917 0.02438239 -0.11531161 -0.00024454546 -0.11263649 -0.082695 -0.12111916 0.037217848 0.017092142 0.06064115 0.13309987 0.11453941 0.11251885 -0.05381145 0.006822206 0.033674423 -0.06520026 0.05546988 -0.023342669 -0.07092011 0.011077431 -0.06410061 0.101951726 -0.10793989 0.015307948 0.10268338 -0.03812676 0.03784181 0.062203724 -0.07061966 0.0702041 0.067702666 0.02704682 0.047247063 0.03738342 0.03092183 -0.10529734 -0.05297936 -0.15646635 0.055662394 -0.041652806 -0.07020071 -0.045674857 -0.06130079 0.022032635 0.12302739 -0.036041692 0.023765923
å -0.046020243 0.008366886 -0.00011936377 0.017364752 -0.0002810855 -0.018192109 -0.005184344 0.0015810761 -0.036003556 0.0037955728 0.020174658 -0.028893089 -0.013339101 0.027318517 -0.010981984 -0.009566767 0.008891854 0.020738091 -0.018035796 0.02427931 -0.0042695478 -0.0066560246 0.040552795 0.005866152 0.01861767 -0.024776371 -0.0062452727 0.035722207 -0.025721863 -0.016376985 0.00945413 -0.052253567 -0.046101034 -0.0073438194 -0.018087445 -0.015304425 0.028184608 -0.007189166 0.006322394 -0.018810488 -0.012845408 0.014175125 -0.008178312 -0.03466666 0.004637978 -0.007450672 -0.01746119 0.013458252 0.028486462 0.021930674
ç -0.011519827 -0.028702358 0.0022732809 0.0026840807 -0.009736758 0.0018023644 -0.0338047 0.0031285263 -0.0324871 0.0069710403 -0.009799025 0.009518573 0.0063216668 0.035406865 0.023473876 -0.02639649 0.011842833 -0.035309948 -0.009813597 -0.020873098 -0.021462455 -0.018884042 -0.0022801268 -0.0050883377 0.020781148 -0.015337746 -0.012741471 0.026471974 0.0038430411 -0.0050956174 -0.0049820365 0.01036443 -0.03157927 0.021121379 0.027110491 0.00963234 0.0034709957 -0.0072315224 0.007912003 -0.00414807 -0.030328045 -0.016124351 0.0103047555 -0.0073276646 -0.0016785689 -0.017949706 -0.01654163 0.03672226 -0.0018433537 0.007396102
î -0.0059311134 0.00019529634 0.010553846 0.024248144 -0.036575608 -0.033330183 -0.0031325666 0.012769112 -0.031413436 -0.0069986964 0.01920214 -0.0280952 0.038533796 0.03989977 0.0320002 -0.010394887 0.026341751 0.022253538 -0.06018291 -0.008130987 -0.0029881676 0.010611602 0.028689535 -0.024705922 0.006718383 -0.023872603 -0.003727932 0.06374781 -0.014934776 0.012359447 -0.013514794 -0.051473223 -0.001422782 -0.00020774445 0.0025566951 0.0074998466 0.015863461 0.023758879 -0.015739873 -0.011910013 -0.01657224 0.026246602 -0.0175348 0.0025753232 0.022312636 -0.0053822165 0.03974242 0.013232301 -0.017361047 0.018629214
