60 50
_ -0.2770982 -0.0484108 0.26962167 -0.16840549 0.14872791 -0.5889912 -0.5274026 0.40091002 0.8071183 0.35532302 -0.81757945 -0.43388325 -0.8543241 -0.44060683 -0.30626738 -1.0694643 0.6650644 -0.2940048 -0.7863714 0.5346141 -0.3353638 0.32992026 0.6581681 -0.011062127 -0.8555121 0.45805237 -1.037389 0.42860657 -0.8172767 -0.13870999 0.20802508 -0.75856125 -1.3160404 0.2756049 -0.34934196 0.32324708 0.53777397 0.4097236 0.3601901 0.25106892 1.6506815 -0.6727319 -0.78807014 -0.6939975 0.9667652 -0.046252467 1.4629569 0.13977015 1.1545745 0.24090755
e 0.033927396 0.26287585 0.59077233 0.45798087 0.5510946 -0.63346344 0.2049908 0.7503137 0.2624051 0.651097 -0.49878502 -0.22800685 -0.74745196 -0.39555696 -0.3708667 -0.4847691 0.8104313 -0.20293507 -0.81657547 0.112725094 -0.014300766 0.39544833 0.14104176 0.14239496 -0.49238056 0.17992893 -0.04861301 -0.19578023 -0.2637171 -0.530796 -0.35011053 -0.17825602 -1.1021616 -0.37931028 -0.184294 -0.100543 1.4010718 -0.19330978 -0.31251192 0.7559946 1.1819761 -0.46604925 -0.026474461 -0.69512665 1.1743761 0.20893094 0.8465726 0.08068206 0.16489352 0.6104456
t 0.14411421 0.14001556 0.6103911 0.24411583 0.19732426 -0.3616133 -0.3939907 0.6653323 0.6823608 -0.03469355 -1.0884653 -0.8991789 -0.2531434 0.32533666 -0.1505244 -0.37393725 0.6047331 0.13437212 -0.4183201 -0.09300401 0.4124015 0.19848996 0.7587807 -0.34654328 -0.4167161 -0.04516714 -0.8188281 -0.22021852 -0.2708369 -0.06970345 -0.653437 -0.69527334 -0.5521552 -0.5373744 0.017098827 0.15064509 0.2527071 0.03451835 0.85454386 0.3394178 0.28451332 -0.544693 0.53777957 -0.60900414 0.8409764 0.41763252 0.77378476 0.03411307 0.93789846 0.6187973
a 0.16766074 0.15691796 -0.14560921 -0.19624539 -0.22412328 -0.8547211 -0.088240966 0.2571863 -0.07558261 0.26039168 -0.773767 -0.3141939 -1.0644927 0.08487289 -0.70859194 -0.65104365 1.0077299 -0.06474809 -0.70290977 0.5769164 0.2949545 0.4616589 0.38512254 -0.02298536 -0.49715844 0.15215127 -0.5810873 0.2739291 -0.7502295 0.11678693 -0.26567873 0.19065388 -1.0160673 0.023133304 -0.16216962 -0.451837 0.5661744 -0.36353746 -0.4350709 0.1707998 1.128651 -0.603617 0.73133856 -0.28666347 0.9705603 0.36642238 0.7855499 -0.14372791 -0.057555042 0.25824457
o -0.2822317 -0.18197457 -0.12354427 0.20670965 -0.1781236 -0.64053386 -0.32498837 1.0645885 0.019994548 0.30796194 -1.0993072 -0.5942477 -0.8639435 0.5598468 -0.61335015 -0.31140083 0.45960802 0.31292644 -0.8133733 0.32958442 -0.1972102 0.65761954 0.547496 0.23766716 -0.2571555 -0.270883 -0.47379142 0.13975668 -0.33370152 0.11805535 -0.5501912 -0.40400517 -0.8369841 -0.156127 -0.06325085 -0.36883718 0.5345505 -0.20716605 -0.52715695 0.726427 0.95426995 -0.4254952 0.28217492 -0.12505203 1.297247 0.610879 0.19564207 0.6822877 0.13540119 0.32270646
n 0.6824026 -0.0038597481 0.65305924 -0.10929763 -0.036028795 -0.55872715 -0.36743686 0.06991088 0.8155366 -0.25437206 0.2651033 -0.9833745 -0.36121553 0.562279 -0.5244993 -1.082794 0.50797725 -0.20858075 -0.46686393 0.24020787 0.30006516 0.12055122 0.42107785 -0.38329655 -0.74544436 0.83197135 -0.35200366 -0.021808332 -0.5906628 0.093209304 -0.39609966 -0.4231951 -0.8398028 0.12873544 -0.40325198 -0.04030206 0.66025805 -0.3863847 -0.25363302 0.4477894 0.4989438 -0.17265528 0.42496717 -0.8285028 0.8309939 1.1133667 1.0624635 -0.100533396 0.6150138 0.27360275
i -0.21853639 0.40424895 0.36752293 0.1752385 0.07412876 -0.73225266 0.6022717 0.19423199 0.73687184 0.4262275 -0.6661718 -0.15255412 -0.323213 -0.2881875 -0.44081205 -0.7102867 1.2001126 0.01695285 -0.96144515 0.16030337 0.11887703 0.47651118 0.5445524 0.08480928 -0.23659801 0.07464671 -0.14176142 -0.03157973 -0.7272358 -0.4428462 -0.3453387 -0.18033613 -1.1277994 -0.34615594 -0.5780441 -0.07055015 0.42959505 -0.14525667 -0.41504887 -0.05303435 1.0609092 -0.23456313 0.69409895 -0.39325562 0.7945503 0.17611226 0.31936002 0.10950407 0.39401528 0.2858179
s 0.3237726 0.2813288 0.2742895 -0.31872922 -0.007473685 -0.8503496 -0.55584615 0.3350227 0.48645976 -0.29833284 -0.50367624 -0.6211977 -0.2780867 0.14975928 -0.49281368 -0.3144372 0.43865702 0.33163857 -0.5032318 0.19359212 -0.037246484 0.3925984 0.11984888 -0.36302954 -0.7464378 0.0993827 -0.86952883 0.3271095 -0.07446353 -0.27388385 -0.39516634 -0.3999543 -0.5718075 0.13179442 -0.055384785 0.015589718 0.6647092 0.059400383 0.26400143 0.55188316 0.5354614 -0.6686491 0.5547824 -0.37323996 0.7724262 0.37876204 0.65977526 0.0075051356 0.5618026 0.044581465
h 0.26641884 0.4317059 0.2992554 -0.28690937 -0.42317474 -0.62860847 -0.752215 -0.07437796 0.72362155 0.33576706 -0.42695302 -0.43988836 -0.8420953 0.56645876 -0.88220406 -1.0012047 0.23324215 0.33699942 0.09034338 0.24230641 0.3649939 0.12302491 -0.28646553 0.4228047 -0.6335572 0.3924751 -0.30295026 0.120606996 -0.48435235 -0.26780567 -0.3017168 -0.049931694 -0.30234766 0.12479652 -0.08445581 0.16631615 0.5486781 -0.6233072 -0.74841416 0.75844336 0.5231926 -0.41964397 0.40532008 -0.5788248 1.5452809 1.0579971 0.35999146 0.09970366 1.2862145 0.055625796
r 0.03711679 0.32163432 0.7812602 -0.5625628 0.14670348 -0.54209155 -0.51343197 -0.23241079 0.85701317 -0.40320265 -0.49725312 -0.48806787 -0.45788485 0.41198978 -0.2842398 -0.71567565 -0.018809691 -0.041409522 -0.8169845 0.2773158 0.042388428 0.9627259 0.41649607 0.09500604 -0.23436534 0.30818596 -1.062503 -0.25243518 -0.67942214 -0.17944269 -0.2580221 -0.43438047 -0.39147535 -0.6085778 -0.013106595 0.22448081 1.1262108 0.36573806 -0.16735126 -0.13931629 0.54086375 -0.33781818 0.21574423 -0.5079391 0.71335316 0.66944593 0.36883256 0.6230384 0.6397715 0.5168387
d 0.11193366 0.2816258 0.34704146 -0.44072792 0.3292034 -0.44223005 -0.6378347 0.3900743 0.8919474 -0.050618198 -0.76939225 -0.3325168 -0.7542577 -0.23580082 -0.8884524 -0.36888903 0.66826534 -0.09496821 -0.60829073 -0.1962323 0.29397744 0.3392509 0.7423495 0.53645754 -0.716761 0.25800598 -0.5298047 -0.13897194 -0.2552702 -8.0830236e-05 -0.39227667 -0.25140843 -0.5206496 -0.2146188 0.19078352 -0.52102983 0.2713977 0.08661314 0.277058 0.52491844 0.2513363 -0.49331135 0.07291565 -0.58102626 1.038649 -0.3815278 0.6468635 0.46419993 1.0193202 0.4820387
l 0.48276532 -0.42135602 0.583626 -0.3753793 -0.09570113 -0.33917227 -0.70962405 -0.096036054 0.5331482 -0.005842167 -0.5222278 -0.40576538 -0.59269524 0.23510759 -0.6229863 -0.898433 1.0920277 -0.09471695 -0.68240047 -0.18169719 0.30012596 0.2045901 0.35088432 0.39319423 -0.7288753 0.39892584 -0.75465614 0.13825004 -0.66962683 0.34334615 -0.13385673 -0.39566085 -0.46257356 -0.6118637 -0.062436625 -0.59696746 0.7257879 0.17381182 -0.30538136 0.6737373 0.74437916 -0.40048143 -0.06756086 -0.5715913 0.16812763 0.19359621 0.5387721 0.5065999 0.64397305 0.169925
u 0.46408886 0.1578944 0.48231468 0.025708415 1.2547375 0.26176226 0.34099528 0.2444984 0.60688597 0.16099007 -0.62467074 -0.49077713 -0.6925979 -0.16364008 -0.2725716 -0.28936204 1.2824708 0.3057421 -0.5096178 -0.034402557 -0.3491748 -0.2489997 0.44093743 -0.22933568 -0.15007098 -0.012803701 -0.92521816 -0.4280099 -0.20219858 -0.49219292 0.4593656 0.347969 -1.0724127 -0.019027153 -0.77917093 0.21704496 0.47753268 -0.3004801 -0.41404134 -0.2903022 1.6111838 -0.94532007 0.6983496 -0.8370185 0.7356421 0.76342857 -0.28151396 -0.91085696 -0.13185693 0.47970775
m 0.25212157 -0.067539915 0.67992795 -0.21137086 -0.028427726 -0.14015311 -1.0259997 0.12422871 0.42062643 0.052345686 -0.18506493 -0.5887264 -0.8967515 0.71233207 -0.34857297 -0.28097406 0.4489213 0.16847676 -0.02902397 -0.15741457 0.59224457 0.33291194 0.5874959 -0.015835647 0.020906772 0.17392123 -0.43049753 -0.58735925 0.3291041 0.10430205 -0.06436673 -0.16991998 -0.544212 0.041786686 0.1124031 -0.5489708 0.24417405 0.38863418 -0.0035244394 -0.3238752 0.65617585 -0.5809325 -0.4737783 -0.5299846 0.8251973 -0.04711565 0.053227253 0.3931465 0.87594014 0.5147213
c 0.32029763 0.27726728 0.22237046 -0.0483377 0.40324938 -0.38448122 -0.49597105 0.68241286 0.88466656 0.022186218 -0.70969754 -0.57806474 -0.47028345 0.3280944 -0.5167696 -0.6215544 0.025754768 0.050782077 -0.46825412 -0.14972532 -0.034623217 0.35988086 0.27897087 -0.3335161 -0.6827636 -0.015780456 -0.8442065 0.2142213 -0.28924328 -0.23136534 -0.61614144 -1.0188172 -1.1698753 -0.2506672 -0.07378377 -0.24119253 0.058514398 0.5792243 0.6195222 0.17901991 0.5526264 -0.45983133 0.058826637 0.11211881 0.8024195 0.1642547 0.45741233 0.49785772 0.8286133 0.4880904
f 0.45006424 0.16350599 0.886883 0.05857071 0.14572385 0.15446223 -0.8278678 0.2619984 0.47921216 0.28326634 -0.31679392 -0.55523586 -0.7030228 1.1954565 -0.65116006 -0.108676165 -0.23923007 0.017953513 -0.30280757 0.6882542 0.3184778 0.463942 0.70283586 -0.30736613 -0.5603486 0.4430784 -0.4788159 -0.5269441 -0.16504629 -0.60769147 -0.6890855 -0.369368 -1.0760022 0.059379026 0.303995 -0.24908514 0.06286504 -0.45512393 0.76531374 -0.21447913 0.29884207 -0.76430047 0.14889644 -0.2697165 1.2114277 0.2566064 0.8567014 -0.62992966 0.87196785 0.29495636
w 0.22973233 0.57705766 0.041614614 -0.0280919 0.27256793 -0.02707123 -0.39050186 0.7090531 0.6208103 0.5025204 -0.8007672 -0.8397158 -1.1143227 0.26949114 -0.15640855 -0.84132814 0.6288857 -1.096099 0.52644134 -0.052614488 1.2606609 -0.15539803 0.67526025 -0.420613 -0.8046924 0.35318857 -0.42088184 -0.4153767 -0.28947908 0.13876286 -0.69708306 -0.21579011 -0.5285943 -0.21674818 0.04005667 -0.35245177 0.026022337 -0.13993214 0.5995779 -0.48533654 0.33844402 -0.67296004 0.2501958 0.45991126 0.10463086 -0.005015979 0.78606015 -0.406694 0.4952759 0.33210993
y 0.27038643 0.10103577 0.1676989 -0.5664745 0.68191826 -0.23213848 -0.051477347 0.724869 0.23799612 0.05659396 -0.24527586 -0.08497252 0.14934248 -0.6476653 -0.40345338 -0.41601217 0.18177725 -0.289749 -0.5523327 0.27116913 -0.6191272 0.09202695 0.10145143 0.10721911 -1.1587708 0.2925341 -0.2712861 -0.7406051 -0.46591994 -0.15949129 -0.25779969 0.05588707 -0.9114535 -0.53788334 0.42028207 -0.3894694 0.7725939 0.0019725058 -0.1809515 1.2312281 0.41350845 -0.47285628 0.15868683 0.019449143 1.2715598 0.56522113 0.29450247 -0.22000773 -0.56170005 -0.6149798
g -0.7666511 0.6554889 0.18126734 -0.6125119 -0.06391676 -0.6183467 -0.90191466 0.9870651 0.25337157 -0.06074491 -0.6982482 -0.50748545 -0.68565583 0.44155455 -0.4795191 0.05390681 0.85483104 -0.41535813 -0.21178173 -0.48475072 0.21328571 -0.016752051 0.7308697 0.10347235 -0.45870888 -0.07305081 0.08767097 -0.018412052 -0.28656664 -0.29106113 -0.01754549 -0.3955871 -1.7580494 0.022419617 -0.029990004 -0.08597219 0.5072617 0.2644358 0.80891585 0.3125818 0.2638229 -0.71301705 0.28259435 -0.030993426 0.5913908 -0.44196826 1.1050131 0.4893548 1.2894106 0.26181003
p 1.0573745 0.1367914 1.0556439 0.028246451 -0.29418355 -0.30878946 -0.52355224 0.008973165 0.15851808 0.19490682 -0.110879205 -0.4545666 -0.025771001 0.21313876 -0.21530783 -0.41109318 0.27593923 0.14814651 -0.36889526 -0.04405173 0.5505845 0.9304049 0.18030642 -0.56309485 -0.34209186 0.8542631 -0.8781693 0.29988027 0.20164768 -0.21798001 -0.61213577 -0.31612086 -1.1576835 0.48242363 0.32141334 -0.6725998 -0.35153154 0.2445933 0.39891997 -0.10506358 0.59179926 -0.46126333 -0.3772958 0.23233086 1.4558594 -0.3393406 0.4781797 0.20460749 0.8080755 0.64834994
<s> 0.18301176 0.6656598 -0.0026798244 0.3184682 -0.13107155 0.04766967 -0.7459081 0.086345404 -0.4207921 0.71916044 -0.25806946 0.8234908 0.22341478 0.9719662 0.99327266 -1.0650345 -0.37924606 1.0746118 -0.26976332 -0.8547986 -0.32417426 -1.336687 0.21264438 0.25026402 -0.13693024 -0.24608392 0.07803004 1.0676316 -0.08952685 0.3155403 -0.13892485 -0.7254006 0.47185826 -0.41261697 0.52693415 0.1970334 0.35509327 0.704174 -0.3462932 -0.44084352 -0.7750724 -0.1727747 -0.26719227 0.21546046 0.77425456 -0.4997835 0.98927283 -0.44742984 0.31082222 0.35753894
</s> -1.737255 0.6972103 -0.77749145 2.090105 -0.834893 1.4926792 0.8979754 -0.6708278 -1.7916771 -0.622918 2.3720675 1.663554 -2.003203 1.3750796 0.40426219 -0.032801047 -1.666189 1.275811 1.6075692 -0.2735255 -0.3974201 -1.1902611 -0.5254882 1.5212168 1.5278912 0.24372739 0.072667606 2.3089454 1.0541565 -0.13400736 2.0548427 -1.2428552 -0.4056322 -2.4579551 0.45699707 -0.637823 -1.828321 0.6436649 1.4078095 -1.374733 -0.89642566 0.8431279 -1.4324433 0.7063486 -0.420889 0.22816542 -1.4651655 -0.6611438 -0.6679371 -0.98466873
, 0.15352212 0.67144775 0.5824857 0.4858284 -0.35211262 -0.83664215 -0.6176021 0.65868294 0.3238211 0.5735972 -0.5276326 -0.36754894 -1.0999997 0.8831932 -0.77409637 -1.6234183 0.9781906 0.77099615 -1.1650418 -0.8264625 0.33198887 0.060727324 0.9007073 0.69563234 -0.94800216 0.9682416 -0.722387 0.79317635 -0.9385349 0.17776117 -0.47662082 -0.5587373 -0.78749245 -0.7085968 -0.35201418 -0.81556255 0.86658585 0.24175239 -0.397546 0.44649738 0.9966813 -0.7108624 -0.04226083 -0.29655817 1.741202 0.44874156 1.3830186 -0.55874175 0.825453 -0.1031648
b -0.07348593 -0.013435469 0.8114041 -0.5490461 -0.24718262 -0.3222543 -0.9728581 0.37976742 1.574746 0.03571921 -0.4397931 -0.7288936 -0.90725344 0.5581282 -0.9040088 -0.8104869 0.07925909 -0.43620133 0.25928226 0.695258 0.04705302 0.30405697 0.915209 0.35479861 -1.1947241 0.643004 -0.38387594 0.08223043 0.2229006 0.113909625 -0.6597016 -0.40494293 -0.313671 0.28068084 -0.065787025 -0.28412148 -0.06830657 -0.29913014 -0.011160789 0.09638018 0.8362504 -0.27439216 -0.1292708 -0.018320331 0.35781428 -0.5523128 0.10843479 0.06606954 -0.24696599 -0.25950906
v 0.27697313 -0.26015207 1.1256304 -0.62777466 -0.57249415 0.0021528623 -0.8198995 -0.32265127 0.46065363 -0.34536052 -0.67186886 -0.43565825 -0.7114983 -0.014084237 -0.5400498 -0.4570149 0.17694469 -0.29096594 0.24298765 0.08313081 0.42815623 0.004716065 0.38214785 -0.5451222 -0.097133644 0.023928192 -0.6337705 -0.39500296 -0.19670288 0.7039007 -0.04257631 0.44524747 -0.52077687 -0.2508398 0.12340454 -1.1581798 -0.10971056 -0.1439212 1.102533 -0.38819382 -0.018000362 -0.72587836 -0.21613728 -1.1316153 1.5380267 -0.4537991 0.49996588 -0.53215307 1.1019372 0.6151769
. -0.17706496 -0.4924885 0.062181525 1.2657261 0.20912893 0.3770507 -0.52113926 -0.2517224 0.1489803 1.189024 -1.425287 -0.2762602 0.45621422 1.2612987 -0.29620788 0.17860214 -0.4010938 0.5840366 -0.9496831 0.033924792 0.1420305 1.2186332 -1.2331508 0.06129793 1.197482 0.27890822 0.5343031 -0.03207448 -0.3770142 0.11204012 -0.22683114 0.26377302 -0.9603453 -0.0030467627 -1.1513474 -0.41277146 0.15968317 0.60590243 0.5945867 0.8770319 0.28438264 0.2411966 0.5696288 0.15661243 0.17961954 0.75524986 1.1372179 -0.13302106 0.4067217 -0.07259185
k -0.050816722 0.46556103 -0.5575004 -0.053216886 -0.12291716 -0.38830012 -0.6224168 -0.12758264 0.08002746 0.15791866 -0.7801521 -0.42938596 -0.5676617 -0.50053495 0.11631025 -0.49314922 1.1362239 0.40891194 -0.20641388 0.50894713 0.7718342 -0.2641548 0.4928645 -0.2694465 -0.7737787 0.15742266 -0.99587715 -0.9933106 -0.24845065 0.43641454 0.15993494 0.38546956 -0.017900705 0.056410857 0.65843165 0.09901493 -0.2706759 0.17630136 0.12137417 0.35011637 0.3075373 -1.0843151 0.59974146 -0.48835042 0.2804373 0.70704305 0.5716869 -0.5665524 0.6506916 -1.2160203
; 0.29628786 0.388283 0.67503333 0.2001456 0.22564842 -0.68169725 -0.4927252 1.2421119 0.673366 0.43448067 -1.122572 -0.6077299 -1.7529315 1.1661773 -0.6296757 -1.4603832 1.0229732 0.8262955 -0.5191301 -0.85290575 0.21661422 0.018142482 0.9846708 1.2000461 -0.79180914 1.041087 -1.1977655 0.7915972 -0.70043266 -0.0870866 -0.35037327 -0.8983473 -1.4299402 -1.6434586 -0.20101987 -0.11089259 1.2685238 0.47054175 -0.016639642 0.5968271 2.0537963 -1.0004461 -0.04709116 -0.019760119 2.28265 1.0688523 1.4445378 -0.7187958 0.77500504 0.7038337
" 0.40833408 -0.027924296 -0.8965493 -2.3806076 -0.1322717 0.54750395 1.1028618 -0.31729642 -1.4045253 -1.6905375 2.7690241 0.079090506 1.4821701 -2.2565382 1.1260312 1.7311151 0.124862686 0.23800756 1.345662 -1.4392549 0.2694665 -0.9419814 0.61762416 0.42018083 0.29600757 1.0324774 0.9042247 0.96510977 0.3959347 0.8124225 0.45697764 1.3368036 3.757958 0.30655456 0.77067685 -0.60858357 0.01371862 0.10783748 -0.6760582 -0.7363936 -1.2464027 0.7936062 -2.1766567 2.2580502 -0.72898126 -1.4360287 -1.3242816 -1.1608515 -2.0061197 -1.0627309
x 1.2357253 0.05936727 0.5429184 -0.8903674 -0.0349842 -1.0286458 0.48083884 -1.2064643 0.8398142 -1.1037005 0.0067862337 -0.2607732 0.17489615 -0.50327563 -0.5784559 -0.15140784 -0.40643737 0.5728153 -0.49406847 -0.38218713 -0.2855436 0.6662919 -0.6281217 -1.1867738 -0.09625514 -0.7614097 -0.4952966 0.61557174 0.56115407 0.015596287 -0.4546027 -0.6333247 -0.76681346 -0.45062384 -0.44560695 -1.1733259 0.15490808 0.55942523 0.12758222 -0.63727933 0.52318 0.028439038 0.78895736 -0.09336914 1.9250109 0.023158498 -0.38755733 -0.36686084 1.0867743 1.5036043
' -1.2927738 1.4864608 0.17818299 0.8264587 -0.4847135 -0.7227456 -0.73982805 -1.3731066 -1.4735672 -0.7233733 -0.37383255 -1.6991298 0.09051534 -0.913254 1.3523538 0.53729856 0.8315929 -0.8492594 0.21217924 0.06332679 0.0061769853 -0.1312609 1.1383557 -0.35585842 -1.5274104 -0.3975388 -0.4749393 0.41567576 2.3197234 1.3156155 1.3154917 -1.329697 1.3755378 1.1963567 -0.028725425 1.1716771 -0.32506147 0.15485352 -1.602824 1.5106763 1.4370017 0.6215286 1.113981 1.2293433 -0.4221682 0.26392412 -0.33074254 -1.5952517 -0.5447748 -1.8004882
q 0.11356395 -0.8497615 1.6280429 -1.3141114 -1.6282897 -0.48773018 -0.580655 0.79579234 1.8858212 -1.1298586 0.05379167 -1.3754753 -0.4034243 0.2982995 -0.89437705 0.41957954 0.22644077 0.22827893 0.6028396 0.03477368 -0.7030912 -0.26501954 0.88121754 0.67235476 -0.65621567 0.65216434 0.41166982 1.3635312 0.75453836 0.3743347 -0.9338279 -0.9232789 -1.2986925 0.28584602 0.7023392 -0.08615694 -0.97948056 -0.58140385 0.11861688 1.278782 0.022372235 0.4745809 -0.8399822 1.3157214 0.4272 -1.1171385 -0.24413663 1.0077484 0.8334061 0.26552343
j 0.32494178 -0.6194883 1.3632228 -0.5378996 -0.74681157 0.15772223 -0.13074301 -0.1772807 0.84583604 -1.0822059 -0.22847678 -1.2349184 -0.97622985 0.0272204 -0.0030591427 0.774551 0.5237922 1.0482697 -0.028585225 0.54192567 -0.48928124 -0.24908474 0.76690453 0.33323345 0.43714908 0.16428329 -0.79023385 0.06920092 0.81558824 0.51574653 -0.20504759 0.18998727 0.13809365 -0.38141647 1.045727 0.4676242 -0.43066412 -0.21002483 -0.61162674 0.45982382 0.15246102 -0.4150846 -0.48230326 0.3497454 -0.23915452 0.012436387 -0.7282614 -0.06266947 0.181251 -0.12716238
z -0.8213359 -0.19799857 -1.3417516 -1.3536592 0.27814358 -0.4671958 -0.54124266 -0.22804919 0.27302077 -1.1563733 1.060359 0.53134537 0.36664075 -0.6203894 0.41421482 0.1996377 1.1675706 -0.47039977 0.4229071 0.8828224 1.0235919 -0.32058784 1.7888736 1.3192774 -0.2774358 1.454005 0.84263635 -0.55807775 -0.033486634 1.1915387 1.6149747 0.32278335 -0.20580746 0.75831044 0.7264929 1.1180369 -0.42141008 -0.37198895 0.16636032 -0.0203025 0.10701455 0.8729598 1.2861947 -1.3385346 0.12983409 0.025471192 1.9885578 0.74436086 -1.2374065 0.56774056
? 0.28342792 -1.2520005 -0.35654438 -0.9699275 0.4121739 -0.19786716 -0.48843932 -0.05543457 0.7917094 0.83036494 -1.3911841 -1.0715445 2.478596 -0.43896666 0.026568199 1.2051171 0.85843265 0.60720855 -1.1862557 -0.619239 0.5238901 1.1840314 -0.3504019 0.15488921 1.08046 0.91351616 1.464086 -0.204631 -1.1155633 0.7821162 -0.7503921 1.7063118 1.9606208 1.8319836 -1.5782827 0.1916925 1.1787497 0.33075452 -0.54869556 1.1692909 0.28809857 0.5632595 0.04318156 0.5329812 -0.22679235 -0.342662 1.7935061 -0.43513674 -0.1368095 -0.14438392
: 0.2497009 -0.036045305 -0.28949806 -0.7750519 0.3552907 -0.24417946 0.31158203 0.7233362 -0.17471424 -0.07937851 0.16664316 -0.40368262 1.0734388 -0.6461516 0.44578192 0.6606705 0.63486946 0.94530135 -0.35756555 -1.1335541 -0.072143525 -0.14068441 0.76986 0.56749696 -0.09416271 0.8407526 0.39337885 0.8436451 -0.25273502 0.15629283 -0.3407632 0.32200623 1.5268272 0.30301553 -0.19398578 0.22370176 0.84346414 0.2050065 -0.48675758 0.41735503 0.40667793 0.119291864 -0.64638376 1.1423911 0.6827914 -0.31702372 0.57898366 -1.0366218 -0.73468125 -0.20442648
é -0.12160729 -0.11570466 -0.04487328 0.06908663 -0.051144622 0.06760002 0.110449 -0.26046887 -0.2704509 0.008296126 -0.059229743 -0.051579513 0.5087285 -0.1794773 0.49590635 0.2676868 0.031992428 0.37227026 -0.15248491 -0.104598485 -0.26267764 -0.17949294 -0.12559636 -0.13618852 0.50229204 -0.11032648 0.2381329 0.55164266 0.10082067 0.24673906 0.24645528 0.1212159 0.5116428 0.36488244 -0.23615827 0.25794262 0.08315459 0.14276938 -0.2382522 -0.0144564165 -0.13605694 0.2761036 -0.118415944 0.17240764 -0.13105664 -0.21521002 0.123695694 -0.2814598 -0.21884374 0.00052856875
æ -0.14086026 -0.122926585 0.021856276 0.18009438 -0.041554313 0.09817824 0.13477235 -0.06695107 -0.22482327 -0.04332576 0.006086229 -0.0029409176 0.30471286 -0.12808765 0.2970266 0.17657816 0.099291205 0.18098398 -0.18677552 -0.04004122 -0.12832393 -0.065948784 0.013706278 -0.19020386 0.3672782 -0.1483942 0.027671956 0.32981622 -0.031291384 0.055956736 0.12527223 -0.09031115 0.09545667 0.09610994 -0.05221849 0.080112554 -0.022640059 0.04799989 0.04488836 -0.05700655 -0.18572888 0.16138503 -0.12591241 -0.03160666 -0.10659734 -0.11796522 -0.0050602397 0.0715812 -0.042048976 0.14005986
ê -0.15428792 -0.043687202 -0.08911163 0.027315365 -0.1978212 0.06827838 -0.101535864 -0.26730305 -0.3123068 0.03995472 0.11023128 0.10378961 0.3297027 0.105553284 0.40050286 -0.07510407 0.044767283 0.31403717 -0.20465632 -0.020197868 -0.17781839 -0.25250828 -0.020933207 -0.12049715 0.28109184 -0.0815788 0.13691358 0.38832834 -0.13276309 0.22441146 0.23847097 -0.06535156 0.27383265 0.21282618 -0.09506237 0.14210376 0.07215216 0.082714416 -0.21368241 -0.1600785 -0.23006728 0.16952264 -0.16096461 -0.084529124 -0.03940706 -0.06834206 0.1990277 -0.067788206 0.0056268317 -0.018705627
ö -0.08731868 -0.08793632 -0.07394868 0.008518521 -0.0714168 0.105158985 -0.050112203 -0.07810595 -0.18994269 0.16409983 -0.06206297 0.07264161 0.24843234 0.064389944 0.27969354 0.00230865 0.05859048 0.2079128 -0.21501273 -0.010071006 -0.14157452 -0.16223319 0.06842095 -0.062327296 0.15798844 -0.10661864 0.11478279 0.25280535 -0.13765477 0.06861732 0.027431719 -0.063624516 0.1342105 0.12644467 0.040021528 0.06674706 0.02078454 0.02463367 -0.17864987 -0.105192244 -0.16628034 0.07023381 -0.14837697 0.067205355 -0.08209636 -0.15897825 0.093020074 0.04376463 0.014415262 0.035223905
è -0.09249909 -0.07240575 0.05468643 -0.01194969 -0.06724673 0.066380076 -0.036991075 -0.0685947 -0.11230765 -0.03463673 0.043270677 -0.033954788 0.20869252 -0.034428593 0.2308174 0.07492594 -0.015269268 0.12600516 -0.08122927 0.0031702567 -0.10640361 -0.08660755 0.03170652 -0.07939274 0.20677634 -0.036221113 0.09938024 0.19296758 -0.054224227 0.08930783 0.110117026 -0.012781581 0.13689792 0.13613547 -0.015248923 0.09443526 0.060963456 0.035403833 -0.00199336 -0.04605227 -0.14747763 0.09082786 -0.17919475 -0.00066628214 0.022226607 -0.13996989 0.076043755 -0.05645108 -0.04488312 0.07157177
ë -0.05857821 -0.09610763 0.010751528 0.033876535 -0.03721917 0.119108476 -0.014189229 -0.13510014 -0.15504007 0.06234868 0.0074315364 0.117868595 0.20132165 -0.0508819 0.2460558 -0.031868957 0.039042916 0.035357423 -0.07807951 0.019967627 -0.09829438 -0.15764517 -0.019317904 -0.09919938 0.17525882 -0.08641315 0.08891606 0.17371593 -0.04618075 0.102105774 0.11716768 -0.0576218 0.026871398 0.05112343 -0.011464715 0.06541608 0.0072021745 0.06700492 -0.048906624 -0.08563425 -0.15889023 0.10143049 -0.102219835 -0.06090037 -0.09973743 -0.15691815 0.094871126 0.059112493 -0.07235518 0.06997515
à -0.108661145 -0.11123373 0.05302846 -0.009075683 -0.113258526 0.10498578 -0.11066426 -0.193008 -0.18355986 0.076543905 -0.001806766 0.025190508 0.36020035 0.012125256 0.36898848 0.023837706 0.0786785 0.21201822 -0.21249889 0.013375587 -0.17983378 -0.17515679 0.052274622 -0.1312852 0.31765005 -0.08542671 0.1477123 0.3933446 -0.039911892 0.20335883 0.13929509 -0.050652787 0.26600942 0.2288571 -0.063389495 0.070097044 0.07563112 0.07846527 -0.16644296 -0.14371368 -0.2035233 0.16608037 -0.18868501 -0.0101460535 -0.111808404 -0.27786696 0.15824522 0.0052540405 -0.12834331 0.093621805
ô -0.018113066 -0.07526413 0.022088183 0.046202846 -0.12284478 0.010201174 -0.0128633 -0.06448539 -0.10326926 -0.018043887 0.03895744 0.034726318 0.083872415 0.03663861 0.17020178 -0.019428875 -0.0439393 0.06395923 -0.031188127 0.077773415 -0.07995255 -0.07879302 -0.07003244 -0.16710865 0.18333746 -0.10504552 0.060624186 0.21182922 0.00036345146 0.0918149 0.018995669 -0.06568118 0.011033767 0.08363885 0.00047922874 0.036863096 0.0002533831 0.028246151 0.017753396 -0.0833038 -0.14814752 0.06481169 -0.117220685 -0.059034992 -0.08055309 -0.11074724 0.06721736 0.10323107 -0.018722838 0.12313181
ñ -0.12371644 -0.04313215 0.010704751 -0.0064828526 -0.08764899 0.04995611 -0.07121516 -0.040473096 -0.22529839 -0.013629258 0.08064991 0.063273646 0.18027848 0.07518973 0.28403378 0.0865763 0.0696571 0.21686986 -0.11205975 -0.059417896 -0.086290725 -0.1486196 0.17682563 0.03508539 0.22188443 0.018308878 0.103446536 0.30082315 -0.02187586 0.101683736 0.13398002 -0.06314098 0.070329815 0.09225745 0.060176775 0.08717667 0.04502292 0.04994888 -0.067338325 -0.12164383 -0.11967982 0.08684578 -0.19591317 0.002724656 0.012135832 -0.2248605 0.16559327 0.004751452 -0.0680326 0.09364241
ä -0.10195334 -0.049751587 -0.0040268637 0.07859669 -0.10395352 0.022715922 0.022671457 -0.08911098 -0.24825758 -0.014799239 0.020784363 0.013697178 0.24880704 0.04256054 0.2901812 0.03059711 0.14120336 0.24703927 -0.23484986 -0.016059928 -0.13356028 -0.1357776 0.15083285 -0.11968002 0.17977145 -0.07164847 0.048839867 0.32293624 -0.08317716 0.096377335 0.08558754 -0.11454674 0.11692875 0.042495977 -0.027647832 0.07424916 0.06968228 -0.0077362037 -0.08462066 -0.0898814 -0.15176222 0.10610412 -0.06719251 -0.04541686 0.04096255 -0.096875556 0.08869531 -0.027247384 -0.057891358 0.08573941
ï -0.039229635 -0.037448805 0.0007021199 0.044838075 -0.036592603 0.05648497 -0.010792306 -0.07513648 -0.08788614 0.040874273 -0.006681025 0.050884686 0.036476403 0.045785133 0.1429411 -0.033963814 0.014335762 0.042565636 -0.03692253 0.055200674 -0.027337464 -0.056311794 -0.034406103 -0.08757876 0.11842491 -0.057639364 0.017029656 0.17787701 -0.02552197 0.026622051 0.060883913 -0.06753764 -0.013788898 -0.027375512 -0.003954402 -0.023333818 0.022979317 0.03298978 -0.029234532 -0.07771542 -0.087777026 0.06660528 -0.03393352 -0.0421728 -0.049937684 -0.07487783 0.012774377 0.058323633 -0.04037805 0.074576885
â -0.03559334 -0.03018742 0.045095455 0.0026729603 -0.02089089 0.07904717 -0.026231112 -0.029515576 -0.038419258 0.060482204 -0.020405257 0.017527461 0.16061844 0.044405285 0.2054779 -0.0018786935 0.017057672 0.11096967 -0.07801161 0.031562254 -0.117912315 -0.10595828 -0.0069470825 -0.08604236 0.17542125 -0.070988365 0.10643005 0.19365567 -0.039410867 0.05543973 0.027047748 -0.043059975 0.07535015 0.094181255 -0.02666774 0.06467538 0.05370913 0.07456818 -0.092650995 -0.059324764 -0.098245345 0.05171127 -0.11394161 0.0022082778 0.004784637 -0.101158805 0.09326623 0.014717867 -0.05338442 0.087321445
ü -0.039296135 -0.055708215 0.020442292 -0.021853507 -0.035484146 0.04914005 -0.016629182 -0.025227673 -0.10008435 0.034054287 -0.0057408744 0.05925846 0.09005538 0.014398324 0.15256727 -0.029274104 0.04005001 0.06574943 -0.07157812 0.06742155 -0.11809628 -0.12978043 0.0007241452 -0.045975316 0.051316485 -0.098881066 0.044095762 0.095001906 -0.032221794 0.017356185 0.06327017 -0.039228804 -0.00084850576 0.033290803 0.071506426 0.039519113 0.04455373 -0.032100946 -0.045355003 -0.03187482 -0.10759007 0.023158636 -0.033253644 -0.04800444 -0.014160205 -0.080876715 0.046076138 0.056951568 -0.040281635 0.04189578
ο -0.11792168 -0.10350704 -0.0033630882 0.012227203 -0.08380359 0.20370539 -0.09976169 -0.2158602 -0.24965763 0.11982877 0.048565608 0.08400291 0.31891862 0.08004395 0.49544612 -0.035337765 0.065769196 0.26317137 -0.20036261 0.15951191 -0.1904112 -0.31919956 -0.023491006 -0.2425002 0.42269775 -0.2109578 0.18990442 0.5173776 -0.094445206 0.17057544 0.17164154 -0.128761 0.12887937 0.1570125 0.031602237 0.05322783 0.058567844 0.101754405 -0.08460557 -0.201597 -0.3935068 0.14934549 -0.201539 -0.05567595 -0.12571232 -0.29135585 0.17089055 0.11339307 -0.088814884 0.1238578
ἶ -0.021305058 -0.06111076 0.0012958929 -0.011740512 -0.04182739 0.11771787 -0.1012192 -0.10251943 -0.11521345 0.07704742 0.005966934 0.06663662 0.15738626 0.057915937 0.25582653 -0.034216866 0.053318955 0.13171457 -0.08332293 0.07831202 -0.097950295 -0.20035565 -0.05252333 -0.15802826 0.20884773 -0.11443713 0.0882477 0.25185388 -0.037626933 0.116738506 0.074550666 -0.06797804 0.039386913 0.07996684 0.028411774 0.05094301 0.035390217 0.05038059 -0.04164952 -0.14222199 -0.2322525 0.0705531 -0.09660932 -0.043242376 -0.12648499 -0.18329969 0.11502172 0.07278643 -0.060321182 0.090486124
δ -0.04509238 -0.079765655 -0.022563735 -0.0137437675 -0.03315255 0.103555955 -0.10189961 -0.12455484 -0.12033625 0.070434645 0.028443808 0.033487283 0.16857724 0.057477895 0.27116746 -0.0219421 0.054843374 0.08115662 -0.07653671 0.08204963 -0.0895331 -0.19005279 -0.060191553 -0.13875031 0.20344777 -0.11138177 0.10062239 0.24579777 -0.029130774 0.10943077 0.07726916 -0.038973786 0.060600713 0.11061378 0.0076226234 0.033014387 0.028440828 0.06856543 -0.05716797 -0.099628806 -0.22721183 0.08321126 -0.0802254 -0.03254674 -0.115495525 -0.17471723 0.08153436 0.104976006 -0.07379791 0.08944893
α -0.06309455 -0.049928643 -0.035882898 -0.006650957 0.004676004 0.12088893 -0.057444897 -0.10882567 -0.10815378 0.072461165 0.015626254 0.028356612 0.15306322 0.02162371 0.21093328 -0.010816147 0.06163189 0.07477137 -0.03973173 0.08742141 -0.03277885 -0.15289322 -0.019435927 -0.12979946 0.15870854 -0.10639288 0.10652343 0.22424936 -0.014566895 0.096785925 0.066127345 -0.0464262 0.076748185 0.10325892 0.010666684 0.030788064 0.003938121 0.039567694 -0.043619916 -0.07764557 -0.18220359 0.07928374 -0.08163682 -0.0023706746 -0.095501326 -0.13727508 0.07708542 0.06303772 -0.06108316 0.047733124
π -0.04185815 -0.06988336 -0.006431964 0.012632596 -0.057097737 0.09734398 -0.056176633 -0.12913902 -0.115409374 0.0658179 -0.016021144 0.04446386 0.15887024 0.029307105 0.20674948 -0.030944485 0.023283174 0.09953425 -0.0921474 0.07675812 -0.10381225 -0.15269905 -0.048377983 -0.1061784 0.17776328 -0.13253738 0.113799274 0.21434842 -0.05125324 0.09697058 0.06695638 -0.024893709 0.06482722 0.11691884 -0.0068743536 0.042348742 0.0069372603 0.05844962 -0.078242645 -0.09281979 -0.14016736 0.07116693 -0.08769193 -0.03979405 -0.10168602 -0.14177787 0.08036943 0.06124737 -0.02829395 0.069792196
ν -0.064962275 -0.076319486 0.0022014128 0.07282813 -0.08898131 0.042202786 -0.025777718 -0.10684407 -0.1554246 0.07058251 -0.006754159 0.052831635 0.15184942 0.09456334 0.19881965 -0.045847036 0.027131198 0.15143478 -0.16413929 -0.012284249 -0.13603592 -0.10319718 0.022580104 -0.080018006 0.19419785 -0.11488342 0.03193989 0.2498319 -0.09754247 0.07998535 0.1018282 -0.093296774 0.026344374 0.06344529 -0.045942347 0.028985642 0.021009885 0.08050686 -0.03730579 -0.13544148 -0.14006777 0.0662489 -0.12802424 -0.06469553 -0.05843625 -0.109236054 0.1040666 0.028434603 0.034915116 0.11572594
υ -0.047608476 -0.06884144 0.025386075 0.03195124 -0.051929142 0.053218886 -0.032508053 -0.07047756 -0.12560414 0.081227764 -0.034342 0.03263404 0.12208747 0.061661646 0.19175915 -0.0583212 0.004080382 0.11609499 -0.10702931 -0.0029659243 -0.09668418 -0.12607163 0.023852432 -0.10546062 0.13069293 -0.118881024 0.023510434 0.19764256 -0.05202059 0.054374427 0.050027788 -0.083868764 0.040112205 0.06278148 0.011335144 0.030202867 0.020963991 0.05188597 -0.04648477 -0.09577578 -0.10566515 0.05028702 -0.07977866 -0.051844854 -0.03560835 -0.08957067 0.10507742 0.034798913 -0.010892189 0.0739815
ς -0.056254324 -0.029611181 -0.026569553 0.039973088 -0.05412775 0.050296254 -0.015902644 -0.07843603 -0.09401954 0.034705523 -0.0143450815 0.006270295 0.101774216 0.050810564 0.10766728 0.01449782 0.06314303 0.112622745 -0.09618741 0.0041060876 -0.028608346 -0.05329766 0.034207333 -0.041364085 0.14892606 -0.07119028 0.03254083 0.1777699 -0.048382808 0.05041376 0.07810827 -0.054435685 0.052996457 0.0049361945 -0.036523663 -0.0059974496 0.034811202 0.031259228 -0.025171068 -0.06923856 -0.1063328 0.06877549 -0.057587318 -0.040452767 0.015766064 -0.053741585 0.037769362 0.010906905 0.012059781 0.058832895
å -0.023368452 -5.3779222e-05 0.0051748278 -0.00478419 -0.011658164 -0.00512223 -0.019963175 -0.016260289 -0.037749536 0.0058989283 0.033237033 -0.004629788 0.007475112 0.0123325875 0.00991114 -0.0085734995 -0.025801882 -0.017667238 0.0171101 0.01903994 -0.0032575459 -0.03241371 0.020499315 -0.0018501384 0.011834482 -0.018141098 0.007591772 0.009237473 -0.0010017387 0.019799763 0.01840148 -0.014545452 -0.018545423 0.0342355 0.001344179 -0.0027904417 0.0061150165 0.0063679223 -0.0059698108 -0.026694106 -0.02489244 0.019079855 -0.02861125 -0.01761713 -0.026753142 -0.042062677 0.0022947798 -0.014876881 0.0058738557 0.023041263
ç -0.01231387 -0.011719314 0.0058186357 -0.018411264 0.011030236 0.0019598466 -0.010898753 -0.009862807 -0.013733235 -0.02105946 0.0031487392 -0.007313349 0.001899332 0.018491266 0.0054710824 -0.0029910654 0.009005155 -0.005286743 -0.010215398 -0.009353768 -0.011332402 -0.0021941804 -0.011776957 0.0026914605 0.027311852 0.006605362 0.00031280186 0.039346226 0.017536603 -0.0040556192 -0.014894503 0.004706923 -0.024942992 -0.02232668 0.025744714 -0.015498783 0.001273734 -0.010111888 0.02299262 0.014103033 -0.03610424 -0.0027938476 0.020884726 0.0117200585 -0.001363796 -0.009971406 -0.030962931 0.026706545 -0.012599964 -0.009249352
î 0.006208742 -0.007255966 0.008999934 0.005481564 -0.024150899 -0.0052821827 0.015891533 -0.010356331 -0.042221926 0.0063635376 0.028530959 -0.002525276 0.058715552 0.016387176 0.069467664 -0.0037289055 0.02141779 0.04628485 -0.052902848 0.011633477 -0.029537102 -0.022258319 0.0048942342 -0.04475904 0.02884886 -0.042349964 0.019026669 0.07570953 -0.0044304417 0.01693891 -0.004990706 -0.014194985 0.025895175 0.027709486 0.006494968 0.026638485 0.024983402 0.010686735 -0.04429854 -0.030079968 -0.035699368 0.030074606 -0.031723082 0.007836018 0.0028128852 -0.028154263 0.0030363724 -0.010597803 -0.045800634 0.025014626
